<?xml version="1.0" encoding="UTF-8"?><PMML xmlns="http://www.dmg.org/PMML-3_1" xmlns:xsi="http://www.w3.org/2001/XMLSchema-instance" version="4.0">
  <Header copyright="Rapid-I GmbH" description="generated by RapidMiner 10.3">
    <Application name="RapidMiner" version="10.3.001"/>
    <Timestamp>Jun 9, 2024 12:49:33 AM</Timestamp>
  </Header>
  <DataDictionary numberOfFields="4">
    <DataField dataType="double" name="id" optype="continuous"/>
    <DataField dataType="double" name="Time_Final" optype="continuous"/>
    <DataField dataType="double" name="Mean" optype="continuous"/>
    <DataField dataType="double" name="Angular_Velocity_Final" optype="continuous"/>
  </DataDictionary>
  <RegressionModel algorithmName="LinearRegression" functionName="regression" modelName="LinearRegression" modelType="linearRegression" normalizationMethod="none">
    <MiningSchema>
      <MiningField highValue="1.0" importance="1.0" invalidValueTreatment="asIs" lowValue="0.0" missingValueTreatment="asIs" name="id" optype="continuous" usageType="supplementary"/>
      <MiningField highValue="1.0" importance="1.0" invalidValueTreatment="asIs" lowValue="0.0" missingValueTreatment="asIs" name="Time_Final" optype="continuous" usageType="predicted"/>
      <MiningField highValue="1.0" importance="1.0" invalidValueTreatment="asIs" lowValue="0.0" missingValueTreatment="asIs" name="Mean" optype="continuous" usageType="active"/>
      <MiningField highValue="1.0" importance="1.0" invalidValueTreatment="asIs" lowValue="0.0" missingValueTreatment="asIs" name="Angular_Velocity_Final" optype="continuous" usageType="active"/>
    </MiningSchema>
    <Output>
      <OutputField dataType="double" feature="predictedValue" name="prediction(Time_Final)" optype="continuous" targetField="Time_Final"/>
    </Output>
    <Targets>
      <Target field="Time_Final" optype="continuous"/>
    </Targets>
    <RegressionTable intercept="0.23277416814796648">
      <NumericPredictor coefficient="1.5826299885891035" name="Mean"/>
      <NumericPredictor coefficient="-1.3176744162255378" name="Angular_Velocity_Final"/>
    </RegressionTable>
  </RegressionModel>
</PMML>
